0.000000 0.0000
0.001333 0.3120
0.002667 0.1248
0.004000 -3.2698
0.005333 -5.8047
0.006667 -9.0532
0.008000 11.1530
0.009333 15.1402
0.010667 19.7144
0.012000 -28.9985
0.013333 -35.6615
0.014667 -42.9652
0.016000 -50.8915
0.017333 50.9501
0.018667 58.7631
0.020000 67.0563
0.021333 75.8095
0.022667 -99.1337
0.024000 -110.3389
0.025333 -122.0018
0.026667 114.9777
0.028000 125.6887
0.029333 136.7163
0.030667 -172.6455
0.032000 -186.1494
0.033333 -199.9256
0.034667 183.4411
0.036000 195.6331
0.037333 207.9703
0.038667 220.4227
0.040000 232.9597
0.041333 -286.3763
0.042667 -301.0877
0.044000 270.7712
0.045333 283.3391
0.046667 295.8376
0.048000 -359.4840
0.049333 -373.7921
0.050667 -387.9133
0.052000 -401.8130
0.053333 356.2299
0.054667 367.6813
0.056000 378.8570
0.057333 389.7296
0.058667 -466.8224
0.060000 -478.7036
0.061333 -490.1412
0.062667 429.6697
0.064000 438.6449
0.065333 447.1707
0.066667 -530.9128
0.068000 -539.7363
0.069333 -547.9668
0.070667 -555.5841
0.072000 482.3701
0.073333 487.8034
0.074667 492.6670
0.076000 496.9490
0.077333 -583.8759
0.078667 -587.4783
0.080000 61.3593
0.081333 508.0735
0.082667 509.3197
0.084000 509.9436
0.085333 -594.7275
0.086667 -593.9999
0.088000 -592.5465
0.089333 -590.3709
0.090667 503.7279
0.092000 500.6390
0.093333 496.9490
0.094667 411.2934
0.096000 -568.9063
0.097333 -562.5697
0.098667 476.3804
0.100000 469.8491
0.101333 462.7919
0.102667 455.2263
0.104000 -521.5179
0.105333 -511.5746
0.106667 -501.1071
0.108000 420.2670
0.109333 410.4600
0.110667 400.2726
0.112000 228.8010
0.113333 -441.8463
0.114667 -428.8125
0.116000 -415.4572
0.117333 344.5308
0.118667 332.6127
0.120000 320.5046
0.121333 308.2362
0.122667 -345.0239
0.124000 -330.4474
0.125333 -315.7900
0.126667 258.1648
0.128000 245.5507
0.129333 232.9597
0.130667 -257.0705
0.132000 -242.5478
0.133333 -228.1593
0.134667 -213.9403
0.136000 171.4243
0.137333 159.6120
0.138667 148.0333
0.140000 136.7163
0.141333 -146.5859
0.142667 -134.0941
0.144000 -122.0018
0.145333 94.6091
0.146667 85.0013
0.148000 75.8095
0.149333 -78.2052
0.150667 -68.5331
0.152000 -59.4211
0.153333 43.6365
0.154667 36.8401
0.156000 30.5777
0.157333 24.8645
0.158667 19.7144
0.160000 -17.6575
0.161333 -13.0073
0.162667 7.7626
0.164000 4.9772
0.165333 2.8037
0.166667 -1.4547
0.168000 -0.3639
0.169333 0.0000