0.000000 0.0000
0.001333 0.3057
0.002667 -1.4799
0.004000 2.7470
0.005333 4.8766
0.006667 -9.2100
0.008000 10.9277
0.009333 14.8344
0.010667 -23.3904
0.012000 24.3622
0.013333 29.9600
0.014667 -43.7093
0.016000 42.7550
0.017333 49.9209
0.018667 -69.7201
0.020000 65.7018
0.021333 74.2782
0.022667 -100.8507
0.024000 92.6980
0.025333 102.4963
0.026667 -136.4165
0.028000 123.1499
0.029333 133.9547
0.030667 -175.6357
0.032000 156.3880
0.033333 167.9616
0.034667 -217.6457
0.036000 191.6814
0.037333 203.7694
0.038667 -261.5229
0.040000 -276.3976
0.041333 240.5907
0.042667 -306.3025
0.044000 -321.2594
0.045333 277.6157
0.046667 -350.9997
0.048000 -296.5232
0.049333 314.0305
0.050667 -394.6319
0.052000 -286.2056
0.053333 349.0343
0.054667 -436.2395
0.056000 -449.4990
0.057333 381.8572
0.058667 -474.9077
0.060000 -486.9947
0.061333 411.7778
0.062667 -509.7862
0.064000 -520.4349
0.065333 438.1380
0.066667 -540.1082
0.068000 -549.0844
0.069333 460.3583
0.070667 -565.2067
0.072000 -572.3133
0.073333 477.9500
0.074667 -584.5301
0.076000 -589.6105
0.077333 490.5263
0.078667 -597.6534
0.080000 -600.5960
0.081333 497.8107
0.082667 -604.2879
0.084000 -605.0281
0.085333 499.6430
0.086667 -604.2879
0.088000 -602.8094
0.089333 495.9829
0.090667 120.2173
0.092000 -593.9885
0.093333 486.9109
0.094667 482.7154
0.096000 -578.7597
0.097333 472.6265
0.098667 466.7578
0.100000 -557.4575
0.101333 453.4437
0.102667 89.3628
0.104000 -530.5505
0.105333 429.7845
0.106667 420.9905
0.108000 -498.6304
0.109333 402.1689
0.110667 392.1873
0.112000 -462.3989
0.113333 371.2043
0.114667 360.2543
0.116000 -422.6528
0.117333 337.5715
0.118667 325.8940
0.120000 -380.2661
0.121333 302.0100
0.122667 289.8618
0.124000 -336.1707
0.125333 265.3018
0.126667 252.9500
0.128000 -291.3363
0.129333 228.2540
0.130667 215.9703
0.132000 -246.7487
0.133333 191.6814
0.134667 179.7357
0.136000 -203.3883
0.137333 156.3880
0.138667 145.0431
0.140000 -162.2085
0.141333 119.9560
0.142667 112.6552
0.144000 -124.1149
0.145333 92.6980
0.146667 83.2843
0.148000 -89.9450
0.149333 65.7018
0.150667 57.5761
0.152000 -60.4503
0.153333 42.7550
0.154667 36.0960
0.156000 -36.2792
0.157333 24.3622
0.158667 19.3162
0.160000 -17.9633
0.161333 -12.6658
0.162667 7.6058
0.164000 -5.9052
0.165333 -2.6556
0.166667 1.2222
0.168000 -0.3702
0.169333 0.0000