0.000000 0.0000
0.001333 -0.3944
0.002667 -1.5766
0.004000 2.5298
0.005333 4.4911
0.006667 7.0044
0.008000 -14.0967
0.009333 -19.1362
0.010667 17.7889
0.012000 22.4359
0.013333 27.5911
0.014667 -46.5635
0.016000 -55.1536
0.017333 45.9737
0.018667 53.0236
0.020000 60.5068
0.021333 16.3930
0.022667 -107.4360
0.024000 -119.5796
0.025333 94.3919
0.026667 103.7476
0.028000 -158.8622
0.029333 -172.8003
0.030667 -187.1042
0.032000 144.0224
0.033333 154.6809
0.034667 165.5240
0.036000 -247.2673
0.037333 -262.8607
0.038667 198.8935
0.040000 210.2060
0.041333 221.5672
0.042667 -326.3032
0.044000 -342.2369
0.045333 255.6647
0.046667 266.9424
0.048000 278.1301
0.049333 -405.0965
0.050667 -420.4003
0.052000 310.8797
0.053333 321.4361
0.054667 331.7690
0.056000 -478.8501
0.057333 -492.5924
0.058667 361.1770
0.060000 370.3694
0.061333 379.2186
0.062667 387.7028
0.064000 -554.4180
0.065333 -565.1941
0.066667 410.7633
0.068000 417.5899
0.069333 -593.8580
0.070667 -602.1133
0.072000 -609.6838
0.073333 440.1585
0.074667 444.5471
0.076000 448.4108
0.077333 -632.7744
0.078667 -636.6786
0.080000 456.7655
0.081333 458.4488
0.082667 459.5733
0.084000 -644.5349
0.085333 -644.5349
0.086667 459.5733
0.088000 458.4488
0.089333 456.7655
0.090667 -636.6786
0.092000 -632.7744
0.093333 448.4108
0.094667 444.5471
0.096000 440.1585
0.097333 -609.6838
0.098667 -602.1133
0.100000 423.9578
0.101333 417.5899
0.102667 410.7633
0.104000 403.4945
0.105333 -554.4180
0.106667 -543.0739
0.108000 379.2186
0.109333 370.3694
0.110667 -505.9180
0.112000 -492.5924
0.113333 -478.8501
0.114667 331.7690
0.116000 321.4361
0.117333 310.8797
0.118667 -420.4003
0.120000 -405.0965
0.121333 278.1301
0.122667 266.9424
0.124000 255.6647
0.125333 -342.2369
0.126667 -326.3032
0.128000 221.5672
0.129333 210.2060
0.130667 198.8935
0.132000 -262.8607
0.133333 -247.2673
0.134667 165.5240
0.136000 154.6809
0.137333 144.0224
0.138667 133.5745
0.140000 -172.8003
0.141333 113.4124
0.142667 103.7476
0.144000 94.3919
0.145333 85.3684
0.146667 -107.4360
0.148000 -95.8182
0.149333 60.5068
0.150667 53.0236
0.152000 45.9737
0.153333 -55.1536
0.154667 -46.5635
0.156000 27.5911
0.157333 22.4359
0.158667 17.7889
0.160000 -19.1362
0.161333 -14.0967
0.162667 7.0044
0.164000 4.4911
0.165333 2.5298
0.166667 -1.5766
0.168000 -0.3944
0.169333 0.0000