0.000000 0.0000
0.001333 0.3534
0.002667 -1.2075
0.004000 -2.7141
0.005333 -4.8182
0.006667 -7.5146
0.008000 -10.7967
0.009333 -14.6566
0.010667 22.4531
0.012000 28.3712
0.013333 24.7244
0.014667 -35.6632
0.016000 -42.2425
0.017333 -49.3225
0.018667 -56.8859
0.020000 76.3715
0.021333 86.0195
0.022667 96.6292
0.024000 107.1507
0.025333 118.6981
0.026667 -111.3047
0.028000 -121.6736
0.029333 -132.3488
0.030667 -143.3043
0.032000 -154.5132
0.033333 -165.9481
0.034667 209.3123
0.036000 222.8095
0.037333 235.9798
0.038667 -213.3812
0.040000 -225.5177
0.041333 -237.7065
0.042667 -249.9176
0.044000 308.3854
0.045333 322.6991
0.046667 334.4281
0.048000 350.4022
0.049333 363.6701
0.050667 -321.9872
0.052000 -333.5247
0.053333 -344.8500
0.054667 -355.9356
0.056000 -366.7543
0.057333 443.8689
0.058667 453.3337
0.060000 465.7407
0.061333 475.0887
0.062667 484.8080
0.064000 -424.6322
0.065333 -432.8857
0.066667 -440.6839
0.068000 -448.0078
0.069333 -454.8396
0.070667 547.6007
0.072000 548.3572
0.073333 554.5337
0.074667 -476.9286
0.076000 -481.0738
0.077333 -484.6459
0.078667 -487.6361
0.080000 -232.7751
0.081333 577.5767
0.082667 577.9149
0.084000 577.5429
0.085333 577.5429
0.086667 576.8363
0.088000 -491.8430
0.089333 -490.0370
0.090667 -487.6361
0.092000 -484.6459
0.093333 -481.0738
0.094667 366.0180
0.096000 554.5337
0.097333 546.3143
0.098667 539.5306
0.100000 -454.8396
0.101333 -448.0078
0.102667 -440.6839
0.104000 -432.8857
0.105333 497.7215
0.106667 487.5375
0.108000 476.8686
0.109333 464.8716
0.110667 454.1813
0.112000 -377.2796
0.113333 -366.7543
0.114667 -355.9356
0.116000 -344.8500
0.117333 395.3096
0.118667 378.8175
0.120000 364.3488
0.121333 347.1387
0.122667 334.4281
0.124000 319.6992
0.125333 -262.1213
0.126667 -249.9176
0.128000 -237.7065
0.129333 -225.5177
0.130667 -213.3812
0.132000 237.7413
0.133333 221.5667
0.134667 208.5354
0.136000 -165.9481
0.137333 -154.5132
0.138667 -143.3043
0.140000 -132.3488
0.141333 142.3503
0.142667 130.7064
0.144000 118.6981
0.145333 107.3510
0.146667 96.0892
0.148000 -73.3878
0.149333 -64.9142
0.150667 -56.8859
0.152000 -49.3225
0.153333 -42.2425
0.154667 -35.6632
0.156000 35.0196
0.157333 28.3712
0.158667 22.4531
0.160000 17.2114
0.161333 -10.7967
0.162667 -7.5146
0.164000 -4.8182
0.165333 -2.7141
0.166667 -1.2075
0.168000 -0.3021
0.169333 0.0000