0.000000 0.0000
0.001333 0.2941
0.002667 -1.5265
0.004000 2.6425
0.005333 -6.0908
0.006667 7.3163
0.008000 -13.6485
0.009333 14.2698
0.010667 18.5811
0.012000 -30.4279
0.013333 28.8198
0.014667 -45.0831
0.016000 41.1279
0.017333 -62.3502
0.018667 55.3849
0.020000 63.2014
0.021333 -40.4388
0.022667 80.1147
0.024000 -115.7778
0.025333 98.5955
0.026667 -140.7039
0.028000 118.4631
0.029333 -167.3065
0.030667 139.5231
0.032000 150.4362
0.033333 -209.7805
0.034667 172.8954
0.036000 -239.4059
0.037333 196.0145
0.038667 -269.7422
0.040000 219.5672
0.041333 -52.9880
0.042667 130.7075
0.044000 255.2050
0.045333 -346.7361
0.046667 278.8303
0.048000 -377.2040
0.049333 302.0793
0.050667 -407.0346
0.052000 324.7243
0.053333 335.7508
0.054667 -94.1360
0.056000 357.0771
0.057333 -476.9315
0.058667 377.2615
0.060000 -502.3003
0.061333 396.1066
0.062667 -525.8081
0.064000 75.3244
0.065333 421.4636
0.066667 -557.0830
0.068000 436.1867
0.069333 -574.9777
0.070667 448.9941
0.072000 -590.3003
0.073333 459.7604
0.074667 464.3444
0.076000 468.3802
0.077333 471.8580
0.078667 -616.4368
0.080000 477.1069
0.081333 -621.7548
0.082667 480.0397
0.084000 -624.0433
0.085333 380.2031
0.086667 480.0397
0.088000 -621.7548
0.089333 477.1069
0.090667 -616.4368
0.092000 471.8580
0.093333 -608.1412
0.094667 464.3444
0.096000 -170.3402
0.097333 454.6394
0.098667 448.9941
0.100000 -574.9777
0.101333 436.1867
0.102667 -557.0830
0.104000 421.4636
0.105333 -536.7915
0.106667 404.9686
0.108000 331.1410
0.109333 -502.3003
0.110667 377.2615
0.112000 -476.9315
0.113333 357.0771
0.114667 -449.9499
0.116000 335.7508
0.117333 -421.6195
0.118667 313.4913
0.120000 302.0793
0.121333 -377.2040
0.122667 278.8303
0.124000 -346.7361
0.125333 255.2050
0.126667 -315.9291
0.128000 231.4344
0.129333 -152.3852
0.130667 186.7469
0.132000 196.0145
0.133333 -239.4059
0.134667 172.8954
0.136000 -209.7805
0.137333 150.4362
0.138667 -181.1557
0.140000 128.8567
0.141333 118.4631
0.142667 -140.7039
0.144000 98.5955
0.145333 -115.7778
0.146667 80.1147
0.148000 -92.7719
0.149333 63.2014
0.150667 -71.9113
0.152000 48.0211
0.153333 41.1279
0.154667 -45.0831
0.156000 28.8198
0.157333 -30.4279
0.158667 18.5811
0.160000 -18.5279
0.161333 10.5118
0.162667 -6.5571
0.164000 -6.0908
0.165333 2.6425
0.166667 -1.5265
0.168000 0.2941
0.169333 0.0000