0.000000 0.0000
0.001333 0.3343
0.002667 1.2070
0.004000 -2.8263
0.005333 -5.0173
0.006667 8.3331
0.008000 -11.2429
0.009333 -15.2622
0.010667 21.4140
0.012000 26.6394
0.013333 -30.8240
0.014667 -37.1369
0.016000 47.0287
0.017333 54.5872
0.018667 -59.2365
0.020000 -67.5966
0.021333 82.0238
0.022667 90.8891
0.024000 -95.3713
0.025333 -105.4522
0.026667 123.6723
0.028000 134.1287
0.029333 -137.8177
0.030667 -149.2259
0.032000 171.6819
0.033333 184.0244
0.034667 -184.9190
0.036000 212.4982
0.037333 222.8163
0.038667 -222.1986
0.040000 -234.8366
0.041333 -247.5290
0.042667 276.0472
0.044000 -272.9527
0.045333 -285.6218
0.046667 319.4617
0.048000 330.2396
0.049333 -323.0868
0.050667 -335.2924
0.052000 369.8547
0.053333 381.6593
0.054667 -370.6436
0.056000 -381.9093
0.057333 417.5504
0.058667 427.1508
0.060000 -413.7669
0.061333 -423.6530
0.062667 460.3416
0.064000 -442.1789
0.065333 -450.7734
0.066667 496.3982
0.068000 495.8282
0.069333 -473.6345
0.070667 -480.2185
0.072000 519.8684
0.073333 522.6251
0.074667 -496.6362
0.076000 -500.9527
0.077333 536.3770
0.078667 539.6864
0.080000 -510.2864
0.081333 -512.1669
0.082667 546.7559
0.084000 547.4257
0.085333 -514.0520
0.086667 -513.4231
0.088000 546.4940
0.089333 543.4155
0.090667 -507.7862
0.092000 545.9182
0.093333 531.3713
0.094667 525.7495
0.096000 -491.7334
0.097333 522.9328
0.098667 510.3868
0.100000 -473.6345
0.101333 -466.5204
0.102667 498.3262
0.104000 480.0388
0.105333 -442.1789
0.106667 -433.1314
0.108000 452.9375
0.109333 440.6298
0.110667 -403.4974
0.112000 -392.8695
0.113333 405.0994
0.114667 390.8139
0.116000 -359.0999
0.117333 -347.3066
0.118667 357.0605
0.120000 -323.0868
0.121333 -310.7196
0.122667 -298.2210
0.124000 304.7651
0.125333 -272.9527
0.126667 -260.2448
0.128000 267.2391
0.129333 249.5895
0.130667 -222.1986
0.132000 -209.6459
0.133333 209.5983
0.134667 195.3707
0.136000 -172.8054
0.137333 -160.8980
0.138667 159.8545
0.140000 146.4757
0.141333 -126.7014
0.142667 -115.9040
0.144000 113.1845
0.145333 101.5630
0.146667 -85.6861
0.148000 -76.4203
0.149333 71.8431
0.150667 62.7090
0.152000 -51.3606
0.153333 46.9363
0.154667 39.4699
0.156000 -30.8240
0.157333 -25.0648
0.158667 -19.8733
0.160000 16.2531
0.161333 -11.2429
0.162667 -7.8251
0.164000 5.4273
0.165333 3.0038
0.166667 -1.2574
0.168000 -0.3146
0.169333 0.0000